0.08121806383132935,0.09632967412471771,0.13214360177516937,0.06538735330104828,0.07173553109169006,8.676356315612793,9.849849700927734,15.529881477355957,8.117222785949707,8.301956176757812,-1.8151918084186036e-06,1.0496457889530575e-06,-1.9785678887274116e-05,-1.1630578228505328e-05,7.748341204205644e-07,0.00011214268306503072,0.00014277065929491073,0.00023771422274876386,0.00011267459922237322,0.00011373816232662648,0.11006264388561249,0.12934793531894684,0.1789669543504715,0.09637037664651871,0.10343879461288452,1.1050721406936646,1.0933773517608643,1.0924004316329956,1.1546980142593384,1.1404407024383545,1.1554384231567383,1.215646743774414,1.1802589893341064,1.2186583280563354,0.4049210846424103,0.2059093862771988,0.16616398096084595,-0.011878417804837227,0.18844440579414368,0.17433947324752808
0.0054311687126755714,0.006575411651283503,0.008461257442831993,0.00548142846673727,0.005052898079156876,60.841670989990234,66.66739654541016,112.11328887939453,86.53374481201172,57.26612854003906,8.242132935265545e-06,1.132124089053832e-05,1.4810452739766333e-05,6.917450718901819e-06,7.803677362971939e-06,4.295499422823923e-08,4.088147775860307e-08,9.281195190169456e-08,6.270502694860625e-08,6.888348025313462e-08,0.010152878239750862,0.011626514606177807,0.015203949995338917,0.013072473928332329,0.011875208467245102,0.43154656887054443,0.4284694194793701,0.4344577491283417,1.1632981300354004,1.065395712852478,1.1955434083938599,2.3655920028686523,1.9412060976028442,2.421548366546631,63.61027908325195,52.32955551147461,153.5837860107422,126.37092590332031,47.08928298950195,38.188758850097656
1.320521354675293,0.9811050891876221,1.5907728672027588,1.3290141820907593,1.2830299139022827,1.3378616571426392,1.1735930442810059,1.2671403884887695,1.6538770198822021,1.5306861400604248,3.232844829559326,3.658459424972534,3.6643755435943604,3.587395429611206,3.7902679443359375,1.409781575202942,0.8336111307144165,1.124316692352295,0.7391749620437622,-0.178505077958107,1.3729352951049805,1.313925862312317,1.3550827503204346,1.5039567947387695,1.2791248559951782,2.2940640449523926,1.3081248998641968,2.363581895828247,1.4484137296676636,1.7243211269378662,1.625595211982727,1.4339215755462646,1.7818177938461304,1.3872852325439453,1.892195463180542,1.884412169456482,1.770400881767273,2.3930816650390625,2.025369882583618,1.7531249523162842
0.2249775528907776,0.15909403562545776,0.16710011661052704,8.874450577422976e-05,0.08439416438341141,0.1305657923221588,0.26811665296554565,0.035478439182043076,-0.1519538015127182,-0.10726945102214813,0.08237991482019424,0.3975987732410431,0.3470747470855713,-0.2646712362766266,-0.03842305764555931,-0.18244922161102295,-0.17627276480197906,-0.2217191457748413,0.16240878403186798,0.23934905230998993,-0.018422679975628853,0.11265604197978973,0.11062872409820557,-0.2899373173713684,0.0748484805226326,-0.12136644124984741,-0.020215705037117004,-0.09339611232280731,0.013835898600518703,0.12907807528972626,0.3825482130050659,-0.06479446589946747,-0.09148474037647247,-0.167005255818367,-0.14089840650558472,0.19449812173843384,0.020423613488674164,-0.023044997826218605,0.06739255785942078,0.10999863594770432
0.1825575977563858,0.46587008237838745,0.49536824226379395,-0.014340969733893871,-0.3085361421108246,-0.021993007510900497,0.2629428505897522,-0.20841461420059204,-0.1420813798904419,-0.12970131635665894,-0.39460062980651855,0.0040061865001916885,-0.2290549874305725,-0.5820156931877136,-0.2587776780128479,-0.20324572920799255,-0.4443018436431885,-0.42718327045440674,0.17955833673477173,0.15570111572742462,0.0925024002790451,0.2293347269296646,0.05062993988394737,-0.030374163761734962,0.1795779913663864,0.21842463314533234,-0.30543237924575806,-0.514045238494873,-0.26126229763031006,0.8227140307426453,0.6128835678100586,-0.08071493357419968,-0.025462709367275238,-0.22376175224781036,-0.25579214096069336,-0.3349165916442871,-0.4642963409423828,-0.24624283611774445,0.11433134973049164,0.5721703767776489
-0.26921743154525757,0.08480062335729599,-0.009900718927383423,0.6854351758956909,-0.7572005391120911,-0.4761108458042145,0.4949258863925934,-0.08391458541154861,0.9143028259277344,-0.3084365427494049,0.222440704703331,-0.5733515024185181,0.8677546977996826,-0.04178934544324875,0.8129995465278625,0.34862902760505676,0.07499154657125473,0.30676978826522827,-0.25926148891448975,0.07016237080097198,0.06644808501005173,0.6960712671279907,0.10188661515712738,0.1485840231180191,-0.24228571355342865,0.30888351798057556,-0.0829535722732544,0.6177822947502136,0.06674150377511978,0.21916209161281586,0.5529941320419312,-0.09784138202667236,-0.07933847606182098,0.08056751638650894,-0.2609499394893646,-0.7735406756401062,0.00212986022233963,0.25787171721458435,-0.4814155101776123,0.312934547662735
0.12527437508106232,0.2286512404680252,0.4210778474807739,0.2546978294849396,0.19284586608409882,-0.11726140230894089,0.41971555352211,-0.26509079337120056,0.39594992995262146,-0.11766014993190765,-0.3319544196128845,0.46987083554267883,-0.646611750125885,-0.2759033441543579,0.15532390773296356,0.10121240466833115,-0.09535204619169235,0.1669635772705078,-0.04813050478696823,0.18902504444122314,0.05867474153637886,0.6231852173805237,-0.30722588300704956,0.42309117317199707,0.022972499951720238,0.12728099524974823,0.47371387481689453,-0.10208790004253387,-0.28283771872520447,0.027220593765378,-0.6559197902679443,0.21177451312541962,-0.03733506426215172,-0.25878942012786865,-0.1740516573190689,-0.32150840759277344,0.09726832062005997,0.060795336961746216,0.019641824066638947,0.45209744572639465
0.270300030708313,-0.4047241508960724,-0.39233100414276123,-0.1711452603340149,0.6253412961959839,0.03372503072023392,0.030210008844733238,-0.10090652108192444,-0.2796279489994049,1.1025304794311523,0.11194536834955215,-0.6885790824890137,-0.5675883889198303,-0.7915014624595642,-0.058327317237854004,0.31643345952033997,0.42620542645454407,0.6129885315895081,-0.16435030102729797,-0.5552815794944763,1.0113331079483032,-0.039475880563259125,0.1609002649784088,0.24725063145160675,-0.06602799892425537,0.012361533008515835,0.5014128684997559,-0.3675418794155121,-0.23207850754261017,-0.16544513404369354,-0.20481154322624207,-0.11685039103031158,0.1509828418493271,-0.33626747131347656,-0.5254848003387451,0.005199054721742868,0.3201265335083008,0.39670276641845703,0.1767996996641159,-0.7547355890274048
-0.4206272065639496,0.26712560653686523,-0.23973113298416138,0.18622520565986633,-0.0972275361418724,0.16112954914569855,0.06746187806129456,0.19240619242191315,-0.12418166548013687,0.017590990290045738,0.7553302645683289,-0.3410184383392334,-0.8288528323173523,0.22506535053253174,-0.8379547595977783,0.43077805638313293,0.025950580835342407,0.3648616373538971,-0.4120095670223236,-0.26153916120529175,0.5162456035614014,0.046151019632816315,0.5961024165153503,0.5242400169372559,0.20261530578136444,0.30911189317703247,0.09172352403402328,0.06498908251523972,0.17557813227176666,-0.2259783297777176,-0.6962613463401794,0.5102916955947876,-0.016936112195253372,0.24507328867912292,-0.38139596581459045,-0.819358229637146,-1.44870924949646,-0.5805798768997192,-0.6545760631561279,0.3236473500728607
0.2460925281047821,-0.2171647697687149,0.39125868678092957,-0.2909080386161804,-0.24439163506031036,0.1018669381737709,-0.2427763044834137,-0.18768572807312012,-0.21848280727863312,0.08895939588546753,-0.2008974701166153,-0.27304965257644653,0.08381108939647675,-0.006842529401183128,0.45348042249679565,0.1231282576918602,-0.2711957097053528,0.010185157880187035,-0.11528271436691284,0.09674622118473053,0.19187085330486298,-0.2493455559015274,0.17968778312206268,-0.1679839938879013,0.31746000051498413,0.07495521754026413,-0.3001282811164856,-0.36826881766319275,-0.07964947819709778,-0.023529555648565292,-0.044422924518585205,-0.021707559004426003,-0.7669529914855957,-0.3459116220474243,0.4827406406402588,-0.37754499912261963,0.627470850944519,0.6779593229293823,0.2467738389968872,0.3171682059764862
0.028793634846806526,-0.23240873217582703,0.8170268535614014,-0.30170783400535583,0.07811231911182404,-0.10492365807294846,0.4895482361316681,0.6064512133598328,-0.027657125145196915,0.11969656497240067,1.0547236204147339,0.06483269482851028,0.49715662002563477,0.13586083054542542,0.15174072980880737,-0.4347679316997528,-0.502582848072052,-0.12988145649433136,0.4206846058368683,0.08668079972267151,-0.3643258512020111,0.005723843816667795,1.00656259059906,-0.5005574822425842,-0.2800171375274658,-0.29093247652053833,-0.2641924023628235,-0.26656922698020935,-0.22586722671985626,-0.6697202920913696,0.0963481143116951,-0.1872434914112091,-0.18771280348300934,0.07160846143960953,-0.11414278298616409,0.20056995749473572,-0.4457632005214691,-0.2081601619720459,0.29429200291633606,-0.08828286826610565
0.1750844568014145,-0.520667552947998,0.43726879358291626,0.057752326130867004,-0.09389124065637589,-0.056550610810518265,-0.2603500485420227,-0.20024549961090088,0.08630523830652237,-0.36124250292778015,1.572426438331604,-0.5689566135406494,0.2140318751335144,0.0715046301484108,0.7612199783325195,-0.005352439824491739,0.2697818875312805,0.4958638548851013,-0.19627223908901215,-0.3950386941432953,0.2745531499385834,0.08924788981676102,0.16556410491466522,0.16844871640205383,0.39454352855682373,-0.31970328092575073,0.017711276188492775,0.25465330481529236,0.1412937045097351,-0.16245652735233307,0.876410186290741,0.1053338497877121,-0.17931242287158966,0.8603138327598572,0.44234567880630493,-0.46338212490081787,0.6094772815704346,-0.0451248399913311,0.2752671539783478,0.012537762522697449
-0.7405174970626831,-0.3722262978553772,-0.007141494657844305,0.5230165719985962,0.05779574066400528,-0.4659716784954071,0.31148308515548706,0.6914863586425781,0.1462348997592926,0.014091468416154385,-0.7325262427330017,-0.27379506826400757,-0.6125162243843079,-0.44004207849502563,-0.1298997849225998,0.10010437667369843,0.3308953642845154,0.1912679672241211,-0.4731085002422333,-0.41310304403305054,-0.41750505566596985,-0.47645530104637146,-0.2636362314224243,0.1447691023349762,0.047595489770174026,-0.10486789047718048,-0.3819437623023987,0.3704666197299957,0.1538398414850235,0.14988289773464203,-0.3316243588924408,0.4128691256046295,0.20714741945266724,-0.16044999659061432,0.9175555109977722,-0.051825836300849915,-0.4519030451774597,0.09094643592834473,-0.020455006510019302,-0.319465696811676
-0.2313075065612793,-0.24823391437530518,-0.19083507359027863,-0.25163713097572327,0.29847973585128784,-0.46273812651634216,0.19999384880065918,0.44270193576812744,-0.3131617605686188,-0.11326978355646133,-0.09151073545217514,0.07553404569625854,0.32052865624427795,0.12350832670927048,0.08093598484992981,-0.15386231243610382,-0.14760835468769073,-0.35258665680885315,0.07820380479097366,0.26983824372291565,0.11903329193592072,0.26641717553138733,-0.1812267303466797,0.16286325454711914,-0.07340585440397263,0.014033939689397812,0.3066880404949188,-0.003396706422790885,0.0793401375412941,0.20161359012126923,-0.16718903183937073,0.10552911460399628,0.18860961496829987,0.034024085849523544,-0.460479736328125,0.3961297571659088,-0.40903574228286743,1.9254130125045776,-0.05219578742980957,0.27723485231399536
-0.13636568188667297,0.1477145254611969,-0.06425429880619049,-0.4066123068332672,0.020923148840665817,-0.01576448604464531,0.004538391251116991,-0.2023421823978424,-0.4594907760620117,0.15201996266841888,0.43615269660949707,-0.3519113063812256,0.5204193592071533,-0.21406330168247223,0.5001146197319031,0.2663610875606537,0.1842575967311859,0.22387079894542694,-0.1553364098072052,-0.1991601139307022,0.04334021359682083,0.17337103188037872,-0.202921524643898,-0.1233588382601738,-0.7352609038352966,0.36711451411247253,0.2298964262008667,-0.3200784921646118,-0.15853577852249146,-0.5755081176757812,-0.37064480781555176,-0.6894873976707458,-0.8083392381668091,0.36652472615242004,0.18172305822372437,-0.9375501871109009,0.2905408442020416,0.18006375432014465,0.3204440176486969,-0.3404461145401001
0.1857173591852188,0.0248243510723114,0.5000552535057068,-0.14113985002040863,-0.3105594217777252,0.12735317647457123,-0.03262687101960182,0.23209112882614136,-0.4208310842514038,-0.2828538417816162,0.2581043839454651,0.02959776297211647,-0.23419351875782013,-0.4429841637611389,0.010073949582874775,-0.15002989768981934,-0.11494288593530655,-0.06949523836374283,-0.12734192609786987,-0.023335665464401245,-0.17317120730876923,-0.15088272094726562,0.24048081040382385,-0.15107287466526031,-0.06962362676858902,0.7384175062179565,-0.2290959358215332,-0.48644307255744934,-0.04594150558114052,0.1917494386434555,0.08007526397705078,-0.2701379954814911,-0.13915660977363586,-0.3736085295677185,-0.011741300113499165,0.18852053582668304,0.10035130381584167,-0.31136640906333923,0.34148144721984863,0.021644268184900284
-0.13891172409057617,-0.0738939568400383,-0.41958364844322205,0.002040417632088065,0.15636098384857178,0.37144339084625244,-0.16764169931411743,-0.08549292385578156,-0.592117428779602,-0.28032633662223816,1.5485222339630127,0.11164077371358871,0.3451828360557556,0.46077752113342285,0.3207015097141266,0.32287630438804626,0.1968253254890442,0.34108966588974,-0.2307434380054474,0.10651176422834396,-0.08637228608131409,-0.3196670413017273,-0.21855072677135468,-0.688599169254303,-0.1185138151049614,-0.09861109405755997,-0.014093187637627125,0.06144692748785019,0.04771881923079491,0.868777871131897,0.15275128185749054,-0.0036003219429403543,0.31337353587150574,0.3553665280342102,0.6278079152107239,-0.18878516554832458,-0.5277189016342163,-1.3638763427734375,-0.5378496050834656,0.20548135042190552
-0.061073098331689835,0.0007863176288083196,-0.2401912361383438,0.5618712902069092,0.45440131425857544,0.2278418391942978,0.35323432087898254,-0.05304182320833206,0.017540108412504196,-0.14906229078769684,0.025212081149220467,-0.18249565362930298,-0.3903934061527252,-0.33150410652160645,0.6834789514541626,-0.08703089505434036,-0.28348788619041443,0.04852445796132088,-0.16458256542682648,-0.18385158479213715,0.11323434114456177,-0.366711288690567,-0.45254674553871155,-0.05951221287250519,-0.2752152681350708,0.6293467879295349,0.0005644943448714912,0.48684176802635193,-0.4986124038696289,-0.816173255443573,0.5215346217155457,0.16736888885498047,0.2745926082134247,0.4668039381504059,-0.49903544783592224,0.8497428297996521,-0.3026532232761383,-0.01226586289703846,-0.8102220296859741,0.10273094475269318
-0.09013968706130981,-0.0729464516043663,-0.5153822898864746,-0.41184669733047485,0.23573224246501923,0.0727718323469162,-0.3587058484554291,-0.3676525056362152,0.13575679063796997,-0.29807743430137634,-0.4450509250164032,0.9409022331237793,-0.6409137845039368,-0.4408525228500366,0.3836975693702698,0.04483089968562126,-0.1298842430114746,-0.30764105916023254,-0.0718642994761467,0.06245304271578789,0.25491446256637573,0.5756378769874573,-0.6012933254241943,-0.4647165536880493,-0.18365052342414856,-0.6088477373123169,-0.23743262887001038,0.7032462954521179,0.01893167570233345,-0.4895559847354889,-0.01780061423778534,0.22059334814548492,-0.11350475996732712,-0.29023146629333496,0.027486568316817284,0.16926518082618713,0.11270982772111893,-0.5094989538192749,-0.5876175761222839,-0.10359809547662735
-0.2115262895822525,-0.05351216718554497,-0.33154115080833435,0.12002173811197281,0.05317742004990578,-0.14007633924484253,-0.38623133301734924,0.041112713515758514,-0.0879569724202156,-0.3809354305267334,-0.5371249914169312,0.8004772067070007,0.04792800545692444,0.16784636676311493,-0.015638835728168488,-0.46431830525398254,-0.3567105829715729,-0.43840107321739197,0.5172187685966492,0.5709530711174011,-0.4070480167865753,0.30145353078842163,-0.40681788325309753,-0.2541215717792511,-0.06920922547578812,0.29864606261253357,0.10341238230466843,-0.4965245723724365,0.46449771523475647,0.3887616991996765,0.14089523255825043,-0.6153237819671631,-0.03843894973397255,-0.19775082170963287,0.2572631239891052,0.2682446837425232,-0.6581312417984009,-0.11604950577020645,0.6311156153678894,-0.017118027433753014
0.007848907262086868,0.10871010273694992,-0.05349073186516762,-0.05945122614502907,-0.3533630967140198,-0.024347787722945213,0.3798188269138336,-0.10294618457555771,0.11661573499441147,-0.6203657388687134,0.21272017061710358,0.5699734091758728,-0.423786997795105,0.10459334403276443,-1.4646769762039185,-0.20357586443424225,-0.20249642431735992,-0.29059600830078125,0.17148496210575104,0.2196541428565979,-0.006519169546663761,0.15779368579387665,-0.18624164164066315,-0.05087393894791603,-0.8113084435462952,-0.1956055611371994,0.06723851710557938,-0.33755630254745483,0.16272659599781036,0.2141629308462143,0.26913392543792725,-0.1422770619392395,0.00895332545042038,0.047949694097042084,-0.34840306639671326,0.5020458102226257,0.8326908946037292,1.0284361839294434,-0.4331530034542084,-0.25617262721061707
0.35690057277679443,0.1441078782081604,0.4103088676929474,-0.44065186381340027,-0.2368447184562683,0.23972773551940918,0.24414467811584473,-0.10822466015815735,-0.39790967106819153,-0.15769663453102112,0.12979942560195923,0.45532548427581787,0.6421934962272644,-0.7659502029418945,0.3985441029071808,0.1655808836221695,0.0798630565404892,-0.19523563981056213,0.1871088594198227,0.22540010511875153,-0.2852116823196411,0.32629185914993286,0.18916118144989014,-0.21593573689460754,0.05989941954612732,-0.13329127430915833,-0.1817144751548767,0.0022417078725993633,0.040464848279953,0.22190850973129272,0.3346051573753357,0.5327119827270508,-0.15559209883213043,-0.0511167012155056,0.0728454440832138,-0.3497147262096405,-0.1376410573720932,0.3461911976337433,0.004817076958715916,0.2547900974750519
0.08750012516975403,-0.22493302822113037,-0.4728391766548157,0.08431065827608109,-0.4955917000770569,-0.02789527177810669,-0.1842716932296753,-0.7058001160621643,0.26376888155937195,-0.27523717284202576,-0.2114264965057373,-0.13766732811927795,-0.5686304569244385,0.4872140884399414,0.4797671437263489,0.05805297568440437,0.0657045766711235,0.33249688148498535,0.07906270027160645,-0.3064146339893341,0.47133517265319824,-0.13905957341194153,-0.12050982564687729,0.3607812523841858,0.0715130940079689,0.554058849811554,-0.12692487239837646,-1.1526769399642944,0.23697985708713531,0.16158205270767212,-0.3510434925556183,0.16066452860832214,-0.4472116231918335,-0.22327911853790283,0.6312068700790405,-0.1356097161769867,0.27415066957473755,-0.052496738731861115,0.08525489270687103,0.14857588708400726
0.16815732419490814,-0.08494140207767487,-0.1638217717409134,0.025990281254053116,0.135727196931839,-0.4748319983482361,-0.3001590669155121,-0.15241284668445587,-0.2296435832977295,-0.11840177327394485,-0.7278121113777161,-0.0006432100781239569,-0.4086804986000061,0.6490967273712158,-1.0522080659866333,0.49676528573036194,0.1485360860824585,0.10598475486040115,-0.4552231729030609,-0.23593638837337494,0.5046707987785339,-0.10392221063375473,0.6030535101890564,-0.1365618109703064,0.1338748186826706,-0.07467778027057648,0.38572046160697937,0.6742587685585022,1.3089823722839355,-0.08584073930978775,-0.5139132738113403,-0.3194229006767273,0.0036491183564066887,-0.1873268038034439,-0.11676260828971863,0.3035471439361572,-0.059535589069128036,0.0027628345414996147,-0.5802783966064453,0.018240123987197876
0.052716054022312164,-0.03823966905474663,0.15523673593997955,0.010934059508144855,-0.10525792092084885,0.44633176922798157,0.1277361512184143,0.13046757876873016,-0.3974008858203888,0.13929179310798645,-0.08391653001308441,0.6190859079360962,-0.43289223313331604,0.2747681736946106,-0.09407450258731842,-0.14050404727458954,-0.052769433706998825,0.018890904262661934,-0.26697874069213867,-0.2032809853553772,-0.38302847743034363,-0.37653848528862,-0.06751704961061478,-0.4334067106246948,0.04403828829526901,0.16069622337818146,-0.5002424716949463,-0.15511591732501984,0.6933824419975281,0.3802404999732971,0.1666070967912674,0.738312840461731,0.25613272190093994,-0.2572213411331177,0.519355297088623,-0.26502567529678345,0.36926692724227905,0.389856219291687,-0.07546155899763107,0.05265616998076439
0.33966919779777527,-0.2358391433954239,-0.07227695733308792,0.21358126401901245,-0.17013926804065704,-0.2710912525653839,0.13100667297840118,-0.1071791723370552,-0.22487907111644745,0.20105847716331482,1.046913504600525,0.3336730897426605,0.021073950454592705,-0.3522849678993225,-0.4396909177303314,0.11126207560300827,-0.26687684655189514,-0.1735145002603531,-0.2109002321958542,-0.02921552024781704,0.0313490554690361,0.14509473741054535,0.09847240149974823,0.15046869218349457,0.3777773976325989,-0.09864075481891632,0.20063135027885437,-0.5506249666213989,-0.04802815616130829,-0.2344570904970169,-0.019126979634165764,-0.010026179254055023,-0.8746231198310852,-0.3359091579914093,-0.8794062733650208,-0.2388659119606018,-0.3631262183189392,-0.5492955446243286,0.9416397213935852,0.702130913734436
-0.017535049468278885,0.4187333881855011,0.09260953962802887,0.08998022973537445,0.29737886786460876,-0.40534070134162903,0.14813783764839172,0.5284319519996643,0.112513966858387,0.17225642502307892,0.023322323337197304,-0.17959295213222504,-0.002890002215281129,0.6149457097053528,0.09068892896175385,-0.027926340699195862,0.2552988529205322,0.015272240154445171,-0.0033264884259551764,-0.4624537229537964,-0.4229249358177185,-0.042887356132268906,-0.540668249130249,0.11665290594100952,0.747380793094635,-0.5152938961982727,-0.1929110437631607,0.8327949643135071,-0.039598457515239716,0.5239468216896057,-0.048651110380887985,0.0048782676458358765,0.8343584537506104,-0.1320538967847824,0.018406206741929054,0.3245558440685272,-0.172629714012146,0.11697153747081757,0.18153616786003113,0.5111128091812134
-0.22051845490932465,0.18723465502262115,-0.10633888095617294,0.03386572003364563,-0.16510428488254547,-0.7639252543449402,0.1364651620388031,-0.10423463582992554,-0.18186922371387482,0.40139174461364746,0.47028282284736633,0.853156566619873,-0.3098669648170471,-0.08484082669019699,0.9131175875663757,-0.2346748560667038,-0.2835662066936493,-0.13711315393447876,0.2840445339679718,0.30362221598625183,0.18968243896961212,0.19091644883155823,-0.00806016568094492,-0.08780907839536667,-0.3051759898662567,-0.07201769202947617,-0.42661726474761963,-0.2974826991558075,-0.09011923521757126,-0.5689249038696289,-0.0001534206239739433,0.023831993341445923,-0.0721317008137703,0.06393128633499146,-0.1624743491411209,0.22747014462947845,-0.011612065136432648,-0.3202691674232483,-0.1343042403459549,0.6542871594429016
0.021414436399936676,-0.15146107971668243,-0.10484673827886581,0.1034880056977272,-0.29398179054260254,-0.1818031668663025,0.09596804529428482,0.18599070608615875,-0.3210095465183258,-0.07382239401340485,-0.5511497855186462,0.2423643320798874,-0.30635347962379456,-0.036300599575042725,-0.626434326171875,0.15175814926624298,-0.004816276486963034,-0.17318429052829742,0.11165592074394226,0.24674762785434723,0.11917820572853088,-0.09841358661651611,-0.026711056008934975,-0.06992477178573608,-0.6093035340309143,-0.2862558662891388,0.03427453711628914,1.2218313217163086,-0.567100465297699,-0.17772848904132843,-0.22894304990768433,-0.3425328731536865,-0.39020270109176636,-0.17632848024368286,-0.18774454295635223,0.14885225892066956,-0.0009864375460892916,-0.4865669906139374,-0.5508741736412048,0.560628354549408
-0.5741335153579712,0.04464404284954071,-0.38052529096603394,-0.0327591672539711,0.0648052766919136,-0.8605628609657288,-0.4255008101463318,0.03318974748253822,0.28782138228416443,-0.5944861769676208,0.8775110244750977,0.9768313765525818,-0.3993722200393677,-1.2066903114318848,-0.5254188776016235,-0.11910735815763474,-0.35407254099845886,-0.6021121740341187,0.15865732729434967,0.2969758212566376,-0.44983887672424316,0.45105284452438354,0.17743977904319763,-0.4097481071949005,0.44144687056541443,-0.32506638765335083,0.0506361648440361,0.1722291111946106,0.5279370546340942,-0.0628504604101181,0.9268063902854919,-0.09130795300006866,0.013932943344116211,-0.6198286414146423,-0.42672914266586304,-0.32472947239875793,-0.20271168649196625,0.07686388492584229,0.5779038667678833,0.5556984543800354
0.01261927280575037,-0.17330041527748108,0.124504454433918,-0.5122951865196228,-0.5009300112724304,-0.19599467515945435,-0.2547178864479065,-0.3607983887195587,-0.22736850380897522,-0.35208454728126526,-0.5086297392845154,-0.4588744640350342,-0.1093142032623291,0.46468302607536316,0.5023676156997681,0.20592713356018066,0.4840640127658844,0.5893813967704773,-0.5085163712501526,-0.5715838074684143,-0.03601027652621269,0.3533194661140442,-0.005622204393148422,0.18717053532600403,-0.16153737902641296,-0.32908979058265686,-0.030529852956533432,0.4489292502403259,-0.14084701240062714,-0.3554074764251709,0.32752999663352966,-0.05624881014227867,0.6041073799133301,-0.16117340326309204,0.33776718378067017,-0.2904045283794403,0.7718070149421692,-0.12260919064283371,-0.41449058055877686,-0.30994895100593567
0.014043080620467663,0.08183464407920837,-0.2958544194698334,-0.30780282616615295,-0.3380858302116394,0.3229197859764099,0.09622372686862946,0.01169273816049099,0.15206865966320038,0.17692027986049652,0.7274357080459595,-0.0782277062535286,0.3721129894256592,-0.168675497174263,0.17502127587795258,0.014314066618680954,0.21126851439476013,-0.06981854885816574,-0.15360181033611298,0.22829385101795197,-0.11290253698825836,-0.15623608231544495,-0.2569675147533417,-0.2100694477558136,-0.352655827999115,-1.271490454673767,-0.19079264998435974,0.13880831003189087,-0.4116171598434448,-0.725223183631897,-0.007670168299227953,-0.20669248700141907,-0.35352346301078796,-0.27178868651390076,-0.4121139645576477,-0.01144656352698803,0.21685293316841125,-0.19556914269924164,0.26968851685523987,0.18319055438041687
-0.12420184165239334,-0.13626329600811005,-0.5317618250846863,-0.3950432240962982,-0.05263156443834305,0.11937163025140762,-0.1922197788953781,-0.6230602264404297,-0.42063283920288086,-0.03409808501601219,1.5930099487304688,-0.8205081224441528,0.25233063101768494,-0.7877447009086609,0.8999075293540955,-0.6965927481651306,-0.4081540107727051,-0.20927289128303528,0.6115399599075317,0.5261602401733398,0.6351174712181091,0.07492050528526306,0.21468375623226166,-0.7495346069335938,0.22924363613128662,0.1938481330871582,0.022224662825465202,-0.1934836208820343,0.18494410812854767,0.19318144023418427,0.13897834718227386,0.17850227653980255,-0.01908757910132408,0.2531174421310425,-0.3372131288051605,-0.01355343870818615,0.04871562868356705,0.005175391212105751,-0.5781056880950928,0.00778242526575923
-0.27918609976768494,-0.04217292740941048,-0.4389801323413849,0.2300284057855606,-0.26928791403770447,-0.3834701180458069,0.24820366501808167,-0.7181873917579651,-0.36829400062561035,-0.1842081993818283,-1.0957750082015991,0.11533816903829575,0.7406624555587769,-0.3386029601097107,-0.4237529933452606,-0.1899590790271759,-0.10004504770040512,-0.30451062321662903,0.28916579484939575,0.541846513748169,-0.3364883065223694,-0.15474259853363037,0.17017583549022675,-0.4194577932357788,-0.17704446613788605,1.105384349822998,0.5664215087890625,0.4584646224975586,0.2207370549440384,-0.24639484286308289,0.44231805205345154,-0.24377112090587616,0.14477930963039398,-0.0772026777267456,0.6044228672981262,0.8516700267791748,0.057079605758190155,-0.3654593825340271,-0.19893617928028107,0.19460710883140564
0.16156549751758575,-0.08399387449026108,-0.06018788367509842,-0.2519836127758026,-0.25849613547325134,0.009306755848228931,0.31838905811309814,-0.16246463358402252,-0.23422306776046753,0.1686832308769226,-0.12167246639728546,0.14201979339122772,-0.04459340497851372,0.04933718219399452,0.15235568583011627,0.24311421811580658,0.10670312494039536,0.09723472595214844,-0.14822743833065033,-0.27938807010650635,-0.02288636937737465,0.03190004080533981,-0.1610652357339859,0.061952970921993256,0.05809725075960159,0.293190062046051,-0.333003431558609,0.06820717453956604,0.361863911151886,0.30105844140052795
-0.5440793037414551,-0.8162332773208618,-0.3025207817554474,-1.0279725790023804,-0.8834786415100098,0.136203333735466,-0.07983087748289108,0.46815186738967896,-0.8009438514709473,-0.34300684928894043,-1.0629572868347168,-0.040198296308517456,0.9523011445999146,-0.4791077971458435,0.44867777824401855,0.9857410192489624,0.18881720304489136,0.03568325564265251,-0.6716606020927429,-0.018542354926466942,0.7652048468589783,-0.6081171035766602,0.266885370016098,0.39108604192733765,0.3336220979690552,0.37914711236953735,-0.04967425763607025,0.3130931258201599,0.04751503840088844,0.07292814552783966
0.45405641198158264,-0.028370892629027367,-0.5527510046958923,-0.30951279401779175,-0.48655062913894653,0.09557594358921051,-0.6926841139793396,0.4863376021385193,0.26253408193588257,-0.8858628869056702,0.03027256205677986,0.5307112336158752,-0.8133757710456848,-0.7080814838409424,0.5385925769805908,-0.40841761231422424,-0.27410393953323364,0.062623031437397,0.5985487699508667,0.26777970790863037,1.1812971830368042,0.046044569462537766,0.5691646337509155,0.017235837876796722,-0.6406014561653137,-0.27491632103919983,0.6275649070739746,0.7084499597549438,0.008057232946157455,0.26134875416755676
0.460599809885025,-0.20376305282115936,-0.5118387937545776,-0.14295189082622528,0.5581532716751099,-0.5263168215751648,0.8076083064079285,0.3631554841995239,-0.3093312382698059,-0.699012041091919,-0.7547760009765625,0.2220609039068222,-0.02360614575445652,-0.6088340878486633,0.07255204021930695,0.21304255723953247,0.06706508994102478,-0.5964845418930054,-0.3973987400531769,-0.2713991403579712,-0.4755675792694092,0.006843653041869402,0.32272791862487793,0.26929670572280884,0.47893115878105164,-0.7652785181999207,0.9021406769752502,0.16110803186893463,-0.2656201124191284,0.13738428056240082
0.299724817276001,1.0297249555587769,-0.16206718981266022,0.12511654198169708,-0.43660402297973633,-0.07523035258054733,-0.09020169824361801,0.4342600107192993,1.1854277849197388,0.19037964940071106,0.20649190247058868,1.016942024230957,-0.032991282641887665,0.2061612457036972,0.36024853587150574,-0.5115351676940918,0.13991865515708923,-0.03811553865671158,0.44599834084510803,-0.49181613326072693,0.744404137134552,0.8045099377632141,0.6746402978897095,-0.27044156193733215,-0.34693729877471924,0.43974271416664124,-1.150543451309204,0.5528570413589478,-0.1738600730895996,0.87034672498703
-0.7642022371292114,0.7846605181694031,-0.11995254456996918,0.4605821967124939,0.3345476984977722,-0.16665248572826385,0.38312774896621704,-0.4213123023509979,1.1183223724365234,0.7397105693817139,0.0434025339782238,-0.4366479218006134,0.12523899972438812,0.6838292479515076,-0.2525693476200104,-0.1679919958114624,0.27748903632164,-0.7000384330749512,-0.006982770282775164,0.5865083932876587,-0.35368114709854126,0.001941222813911736,-0.4196258783340454,0.8602701425552368,0.8477993607521057,0.10857801884412766,0.15483880043029785,0.43482688069343567,0.03648972883820534,-0.012226375751197338
0.2304595708847046,-0.12237534672021866,-0.6157491207122803,-0.5881086587905884,-0.28759968280792236,-1.2090976238250732,0.4464045763015747,-0.05187089368700981,0.08737319707870483,0.1440470963716507,0.507250189781189,-0.21026895940303802,-0.356650173664093,0.1714089959859848,-0.7364265322685242,-0.5566960573196411,-0.29214221239089966,0.3218318223953247,-0.17016038298606873,0.08497428148984909,0.33016687631607056,-0.4106399118900299,-0.3479371964931488,0.944647490978241,0.4641039967536926,-0.7868364453315735,0.42905503511428833,0.7601650357246399,0.7377547025680542,0.2718569338321686
0.4966776967048645,-0.12608599662780762,0.21287748217582703,-0.46522989869117737,-0.7550578117370605,0.3030804395675659,0.16926351189613342,0.014480099081993103,-0.20250485837459564,-0.6537711024284363,-0.17933198809623718,0.2684132754802704,0.9772439002990723,0.46401163935661316,0.9903258681297302,0.48799654841423035,0.7202632427215576,0.31111273169517517,-0.5288665294647217,-0.4564798176288605,0.4460313022136688,0.0655302107334137,0.3332282602787018,0.14066071808338165,-0.22890302538871765,-0.3625893294811249,0.26044636964797974,0.19770042598247528,-0.43431025743484497,0.19082073867321014
-0.1162627562880516,-0.70157390832901,-0.8024589419364929,0.14896556735038757,0.13878263533115387,-0.06457901000976562,0.019580094143748283,-0.5358948111534119,0.8164063096046448,0.5375612378120422,-0.2693350315093994,-0.6549491882324219,0.8766545057296753,-0.16698355972766876,-0.6029379367828369,-0.23771299421787262,-0.1411120593547821,-0.9412882924079895,0.6176961660385132,0.291521817445755,-0.2756122946739197,0.35649460554122925,-0.29656514525413513,0.9098968505859375,-0.17184525728225708,0.49665921926498413,-0.441623717546463,0.34841060638427734,0.9441843032836914,-0.2805273234844208
0.5765411853790283,-0.3023170530796051,-0.625468373298645,-0.028897255659103394,0.5049557089805603,-0.9966108202934265,0.5530383586883545,-0.22966255247592926,-0.007191101089119911,-0.45408520102500916,0.025148717686533928,0.5260307788848877,-0.28211814165115356,-0.56264328956604,0.8664751052856445,0.2458743304014206,-0.8074352741241455,0.5090949535369873,-0.3255337178707123,-0.5132550001144409,0.023430082947015762,0.6361759901046753,0.28759121894836426,0.7814298868179321,-0.5170227885246277,-0.8334616422653198,0.7458751201629639,0.45425617694854736,-0.3984028697013855,0.6932644844055176
0.24488137662410736,0.1880483478307724,0.157285675406456,0.03280244767665863,-0.21863968670368195,-0.20075556635856628,-0.1813814789056778,0.42503973841667175,-0.36142534017562866,-0.4289337992668152,-0.2511081397533417,0.422789603471756,-1.0226664543151855,-0.7807987332344055,0.2921268045902252,-0.5908541083335876,0.2874431610107422,0.15408256649971008,0.9439020752906799,-0.20031550526618958,-0.07790888100862503,-0.42720887064933777,0.121244877576828,0.14363691210746765,-0.7279068231582642,-0.1658400297164917,0.3520434498786926,-0.06300587952136993,-0.09054646641016006,0.7505320310592651
0.5728983879089355,0.8582078218460083,-0.08871867507696152,0.4209011495113373,0.5422949194908142,0.32153579592704773,0.6911206245422363,0.20088088512420654,-0.005292786750942469,-0.9507691860198975,0.2750360667705536,-0.26595208048820496,0.6731448769569397,-0.3472481966018677,-0.40688571333885193,1.0242995023727417,-1.319166898727417,0.08461412042379379,-0.55745929479599,1.1853009462356567,0.23566268384456635,0.390433132648468,-0.03235214203596115,0.7098201513290405,0.36683496832847595,0.05657482147216797,0.1207294687628746,-1.0476974248886108,0.44915807247161865,-0.6324859261512756
0.15934136509895325,-0.641705334186554,-0.9479244351387024,-0.3642885088920593,-0.6123167872428894,0.4690800905227661,0.011442269198596478,-0.2797745168209076,0.5411919951438904,-0.07937011867761612,0.1993889957666397,0.33444902300834656,0.5463236570358276,-0.06816164404153824,-1.1205511093139648,0.7446544766426086,-0.7951379418373108,0.03236805275082588,-0.5946097373962402,-0.14834702014923096,0.9858701229095459,0.0012377407401800156,-0.504699170589447,0.9280267953872681,0.6854800581932068,-0.7004942297935486,0.2286035269498825,0.48581627011299133,0.018947487697005272,0.38963884115219116
-0.7830439209938049,-0.27789807319641113,0.27509862184524536,-0.4964914917945862,0.45464658737182617,-0.642765998840332,0.9814480543136597,-0.4842122197151184,-0.326651394367218,0.8886791467666626,0.5385710597038269,-0.9167761206626892,0.5337684750556946,0.021083476021885872,-0.5487698316574097,-0.03759896382689476,-0.014865054748952389,-0.33664068579673767,-0.7091807126998901,0.15453335642814636,0.6885870099067688,-0.8846520781517029,-0.5543150305747986,0.2400447130203247,0.45203083753585815,-0.023729033768177032,0.14052924513816833,-0.5044879913330078,0.6273101568222046,-0.856122612953186
0.1905062049627304,-0.6827598214149475,-0.1137712299823761,-0.07442755252122879,0.454992413520813,-0.1531088948249817,-0.56658536195755,-1.079209566116333,-0.6383347511291504,-0.5031694769859314,-0.5503329038619995,-0.12192045152187347,-0.5382541418075562,-0.2310885637998581,-0.3454585075378418,-0.023575834929943085,-0.4155902564525604,0.33533188700675964,0.7810675501823425,0.3820737898349762,0.396882563829422,0.31592926383018494,-0.44249188899993896,0.416629433631897,0.14234955608844757,-0.4800347685813904,0.03698144853115082,0.0077224415726959705,0.7037858963012695,-0.7472054958343506
0.39837411046028137,-0.16635793447494507,-0.13127239048480988,0.34477436542510986,0.29920387268066406,-0.1656063348054886,0.022943826392292976,-0.5756099224090576,0.4940788745880127,0.48400557041168213,-0.21826708316802979,-0.050888288766145706,1.019775152206421,-0.040315818041563034,-0.4678092896938324,0.42280566692352295,0.12139829993247986,-0.7198411226272583,0.45586469769477844,0.10144055634737015,-0.6362804174423218,0.19792747497558594,-1.1025625467300415,0.4092520475387573,-0.3188363313674927,-0.08947444707155228,0.17562061548233032,0.4136417806148529,0.6488366723060608,0.17502018809318542
-0.09665504097938538,-0.494136780500412,-0.4991593658924103,-0.4581095576286316,-0.35567706823349,-0.10880578309297562,-0.287341445684433,0.24439048767089844,0.02919047698378563,-0.01563057117164135,-0.08891688287258148,-0.3879443109035492,-0.22186817228794098,0.06893067806959152,0.3873295485973358
0.5553680658340454,0.0816519558429718,-0.28766441345214844,1.523762822151184,1.7744221687316895,0.9175203442573547,0.9371113181114197,0.8618829250335693,1.126125693321228,-1.577723503112793,-0.8036141395568848,0.32943931221961975,0.8361288905143738,-0.7549887895584106,1.306219458580017
0.7238625288009644,2.566847562789917,0.9965603351593018,2.0775043964385986,-0.8710581660270691,1.4112385511398315,0.1970544159412384,-0.18000924587249756,0.7132489681243896,2.029186248779297,-1.6416890621185303,1.233771562576294,-1.731951117515564,0.9822387099266052,-0.3249422013759613
-0.19776186347007751,0.3089360296726227,1.3622288703918457,-0.14201070368289948,-0.3216402530670166,-2.391256809234619,-0.016920605674386024,-0.6933903694152832,1.6067842245101929,-1.1361051797866821,1.903196930885315,-1.7003579139709473,-1.5844427347183228,-1.6973956823349,-0.5121448636054993
-2.3019747734069824,-1.0653433799743652,-0.9803247451782227,-1.2357300519943237,1.9254769086837769,-0.31346163153648376,-2.663435459136963,2.2501139640808105,-1.3847593069076538,0.23072053492069244,0.7226609587669373,-1.9140743017196655,-0.48118558526039124,1.5824857950210571,0.8100845813751221
1.030450701713562,-1.3965766429901123,-2.5844967365264893,-1.270363211631775,-1.5535186529159546,-0.010083140805363655,0.7820050716400146,-1.643388032913208,-2.373408555984497,1.1393659114837646,-1.474804162979126,-1.7171844244003296,0.31829121708869934,-1.3293527364730835,-1.5195592641830444
1.4668874740600586,-1.1326383352279663,1.2469877004623413,-2.1404032707214355,-0.27268245816230774,1.023410677909851,0.48569434881210327,0.6543547511100769,0.5609462261199951,-1.1274625062942505,1.5218943357467651,0.7406203746795654,2.10453462600708,1.445547342300415,0.12395798414945602
-0.15609976649284363,-0.13909593224525452,-0.061490945518016815,0.6879122853279114,0.13101568818092346,-0.11908084154129028
